<?xml version="1.0"?>
<opencv_storage>
<my_svm type_id="opencv-ml-svm">
  <svm_type>C_SVC</svm_type>
  <kernel><type>LINEAR</type></kernel>
  <C>1.</C>
  <term_criteria><epsilon>1.1920928955078125e-07</epsilon>
    <iterations>1000</iterations></term_criteria>
  <var_all>1000</var_all>
  <var_count>1000</var_count>
  <class_count>2</class_count>
  <class_labels type_id="opencv-matrix">
    <rows>1</rows>
    <cols>2</cols>
    <dt>i</dt>
    <data>
      0 1</data></class_labels>
  <sv_total>1</sv_total>
  <support_vectors>
    <_>
      1.29053518e-02 -8.12167302e-03 2.71401051e-02 -7.72419432e-03
      1.25631830e-02 1.18020047e-02 3.03865094e-02 -2.85204733e-04
      -5.39247766e-02 1.85190048e-02 -2.56691370e-02 -3.59045388e-03
      2.15012114e-04 -8.24597105e-03 2.45410460e-03 -3.14221606e-02
      1.20303044e-02 2.50887070e-02 7.18431026e-02 -1.83001403e-02
      -6.31569922e-02 -3.33302431e-02 -3.91577045e-03 1.62162143e-03
      -6.52053058e-02 1.45745613e-02 -1.09019410e-03 -1.02242110e-02
      1.50649054e-02 4.61390503e-02 1.76145416e-03 -7.41817057e-03
      1.02869578e-01 -2.45566405e-02 1.31469872e-02 -7.28234882e-04
      -1.65256187e-02 4.51588929e-02 2.02313159e-02 1.89103261e-02
      2.80103702e-02 2.61787251e-02 1.15417289e-02 -2.07435545e-02
      -8.86499509e-03 6.84593245e-02 -6.81860223e-02 -6.18222803e-02
      -3.17285955e-03 1.26072839e-02 -2.82372022e-03 4.77918275e-02
      3.20774354e-02 1.19715650e-02 -2.78695077e-02 -1.03985509e-02
      -4.91146976e-03 2.96060927e-02 1.02061071e-02 2.91199591e-02
      2.52506156e-02 2.74743466e-03 -8.77695438e-03 1.42873414e-02
      -2.36998368e-02 -2.20647966e-03 4.11483599e-03 7.80840032e-03
      -9.69227403e-05 8.70430656e-03 -6.77866070e-03 3.30217220e-02 0.
      -1.15123503e-02 -1.83359198e-02 1.61942164e-03 -1.17891654e-03
      -1.54674295e-02 -3.84575687e-05 1.29898386e-02 -1.06063928e-03
      1.40946824e-02 -2.86805406e-02 -1.01020411e-02 -4.62224567e-03
      -8.43224209e-03 -3.42209311e-03 -6.39093518e-02 -1.17005408e-03
      3.64764035e-02 -4.58646640e-02 -6.53274916e-03 8.03855620e-03
      -8.68129823e-03 -4.33434919e-02 1.30778458e-03 -8.73078033e-03
      -3.86531465e-05 -9.18743946e-03 -1.37643889e-02 4.65959031e-03
      -3.38520482e-02 -3.05832531e-02 -2.01213192e-02 -6.20259997e-03
      2.70413198e-02 -3.32107861e-03 8.19327980e-02 8.00624257e-04
      -1.47229955e-02 -2.06235796e-04 1.18702203e-02 -1.89101510e-02
      6.97962707e-03 2.32226937e-03 1.27094332e-02 -1.66666694e-04
      -1.88783091e-03 -3.96120176e-02 -1.21719269e-02 -8.58899904e-04
      -4.77228127e-03 -1.23963854e-03 -6.56134076e-03 -2.68911216e-02
      1.98503006e-02 4.75111697e-03 7.09141046e-02 3.43280635e-03
      7.93942250e-03 -2.36301497e-02 -2.84951683e-02 1.54162934e-02
      2.78845662e-04 6.36790767e-02 1.75470356e-02 3.64061515e-03
      -1.77112687e-02 3.28369215e-02 -4.47513442e-03 1.36688566e-02
      -2.49999994e-03 -3.69317159e-02 -3.04785725e-02 -5.81928454e-02
      1.03321575e-01 4.24326956e-03 -5.09911031e-02 -5.37048429e-02 0.
      -8.87984782e-03 -1.47409756e-02 2.12201513e-02 1.70559082e-02
      4.66344878e-02 -1.36777479e-02 2.17160732e-02 1.88825466e-02
      -8.07280466e-03 7.55019719e-03 1.82093158e-02 1.00275595e-02
      1.08338520e-02 4.79283109e-02 4.84217107e-02 3.95284146e-02
      1.03542721e-03 -1.07014440e-01 1.86726847e-03 5.76329697e-03
      5.66073786e-03 6.24065660e-03 2.62928214e-02 2.17376603e-03
      -2.70689037e-02 2.35584914e-03 1.49928510e-01 -3.11813764e-02
      2.75444239e-03 5.47706941e-03 8.91465694e-03 -2.35252846e-02
      7.09290290e-03 0. 4.17998619e-03 -5.36678871e-03 -8.31303000e-03
      -1.59788821e-02 -2.61974949e-02 5.74935414e-03 -3.59859057e-02
      -7.49999983e-03 -2.14683879e-02 -7.87453353e-03 -1.22357076e-02
      1.13663584e-01 5.05714044e-02 1.16864927e-02 -1.02870390e-02
      -7.55754486e-03 5.39069064e-03 1.06856348e-02 -3.43456380e-02
      -2.83020060e-03 -5.86665943e-02 -7.21887313e-03 3.99122247e-04
      -3.03275185e-03 -3.46952230e-02 -1.34550929e-02 -1.91809586e-03
      -1.85792372e-02 -7.97107350e-05 5.11546545e-02 -2.67655253e-02
      -7.40837818e-03 -1.62509247e-03 -1.45539669e-02 -1.58298537e-02
      5.32840677e-02 1.02209076e-02 9.74977389e-03 2.44631339e-02
      5.30302990e-04 -2.11680438e-02 1.01666665e-02 5.03664687e-02
      -3.76842730e-02 -2.46089511e-03 -1.49924889e-01 4.83742915e-03
      -4.57481109e-02 7.61538278e-03 4.91754189e-02 -1.42108249e-02
      1.67618543e-01 7.74898613e-03 -1.72605831e-02 2.73972610e-03
      -5.55949984e-04 -3.42915654e-02 1.58682372e-02 4.20757197e-02
      1.26666669e-02 -2.44817138e-02 -1.27464877e-02 8.82850513e-02
      -6.83017820e-03 -3.29088047e-02 4.25591506e-02 3.10714496e-03
      7.64228590e-03 -4.61126678e-03 1.10490117e-02 -1.81285641e-03
      2.02610623e-02 2.23121289e-02 1.18030421e-02 -2.82182661e-03
      -2.64683794e-02 -5.44047169e-02 9.16971825e-03 6.53909892e-03
      -2.05813482e-01 6.52980059e-02 -1.89036634e-02 -2.94763912e-02
      1.81983039e-02 4.81168972e-03 3.21448315e-04 2.92912070e-02
      2.42396700e-03 1.18769314e-02 2.90767197e-02 -3.98110002e-02
      1.49140954e-02 6.54800832e-02 3.46848764e-03 2.85866130e-02
      5.38535416e-02 3.32295639e-03 3.24025005e-02 -1.92391817e-02
      9.13140178e-02 -9.56733804e-03 3.30332406e-02 -7.87356310e-03
      1.62504427e-02 1.85694564e-02 -2.88316943e-02 3.95329267e-01
      -1.00207273e-02 3.40957120e-02 6.58584982e-02 -1.50054526e-02
      -3.42811365e-03 -4.00900934e-03 -3.43848318e-02 -2.08243309e-03
      3.56068127e-02 2.40780748e-02 1.34384725e-03 -1.89798772e-02
      -1.05402302e-02 -5.79318963e-02 3.99021171e-02 -1.17125846e-02
      -4.25275378e-02 -8.10200274e-02 2.84876879e-02 -6.74217660e-03
      -4.55367658e-03 -7.72569515e-03 2.77920496e-02 -1.33699551e-03
      -8.49750172e-03 1.07480064e-02 -1.00828167e-02 1.17779966e-03
      -4.21468448e-03 1.42342178e-02 1.87760964e-02 2.51590908e-02
      2.58215936e-04 -8.35640170e-03 1.80502213e-03 -1.31613687e-02
      3.66857015e-02 8.92841369e-02 2.77696177e-04 -3.28645743e-02
      6.02642260e-03 -2.62197610e-02 6.98694289e-02 1.09912623e-02
      -7.04219565e-04 1.31586636e-03 -1.98218971e-02 -2.27825399e-02
      1.85211971e-02 -4.20151697e-03 -1.01189073e-02 3.58304777e-03
      4.84529091e-03 -3.35727422e-03 -2.33907346e-03 1.48818363e-02
      1.89806633e-02 7.49586746e-02 -2.23204382e-02 3.87722813e-03
      2.71401033e-02 -4.01018709e-02 -2.42268038e-03 -8.24004412e-03
      -1.47844702e-02 2.42805555e-02 4.24522161e-03 -1.83642693e-02
      -1.26945321e-03 1.70111400e-03 5.43016344e-02 -1.33300284e-02
      6.34240918e-03 2.51754913e-02 3.01932413e-02 -1.39806652e-02
      -9.90163721e-03 1.01831462e-02 2.92955022e-02 1.92286400e-03
      -6.00020811e-02 -5.02862968e-03 1.80808688e-03 1.80070032e-03
      -1.71328336e-01 -6.49065599e-02 1.73460580e-02 3.62967514e-02
      1.38089443e-02 6.20329147e-03 -1.03878248e-02 1.34784393e-02
      2.45875237e-03 6.76043332e-03 2.51978282e-02 -8.27447139e-03
      -1.08908080e-02 -1.46596264e-02 -1.91411469e-02 1.07354186e-02
      5.18500432e-03 -6.84516085e-03 6.93497285e-02 -6.81472011e-03
      -1.46049168e-02 4.17496487e-02 1.90368220e-02 3.33333341e-03
      1.17511488e-03 2.16552150e-02 1.60682723e-02 -6.96819797e-02
      3.38717699e-02 6.52765017e-03 -4.44173394e-03 2.29193438e-02
      -7.72154555e-02 2.47916058e-02 3.69335129e-03 -7.90183991e-03
      5.09831170e-03 -1.77744403e-02 -9.47537087e-03 -1.78755494e-03
      3.18597108e-02 4.49005291e-02 -2.89378618e-03 -2.76255347e-02
      -3.06712603e-03 -3.12969312e-02 3.17970067e-02 -1.65171307e-02
      1.51298912e-02 1.25760119e-02 1.63418427e-03 -1.07216695e-02
      -2.74782889e-02 -6.42750692e-03 -1.06093171e-03 -3.14045735e-02
      3.91682517e-03 -1.19454209e-02 2.01545767e-02 -7.93056190e-03
      1.01551516e-02 4.39601168e-02 -9.23108235e-02 2.33080350e-02
      7.83498306e-03 -3.75173464e-02 -3.22922133e-05 -1.86521374e-02
      2.72415727e-02 2.67824647e-03 -1.05415229e-02 -2.14441749e-03
      2.91409972e-03 -6.81117689e-03 -1.11803487e-02 -1.10954307e-02
      9.94158164e-03 -9.07225385e-02 7.46496301e-03 2.49999994e-03
      -1.05937915e-02 -1.02773197e-02 5.03486535e-03 4.32396196e-02
      -2.39286926e-02 -1.22272968e-02 2.10618544e-02 6.31946921e-02
      6.63629035e-04 7.04135932e-03 -1.80409588e-02 -7.28677772e-03
      -7.22333975e-03 2.34831753e-03 -1.78938881e-02 -2.65120659e-02
      -6.02614274e-03 -1.49171576e-02 -3.01874150e-03 8.56984779e-03
      -2.58886628e-02 -7.83120468e-03 4.70253825e-03 -6.58103973e-02
      -1.07778693e-02 -7.43756443e-03 5.59854507e-03 -2.40960624e-03
      7.91754853e-03 1.09865945e-02 -6.34013768e-03 -2.81805582e-02
      -8.32665246e-05 1.27585316e-02 3.26372385e-02 1.14477351e-02
      -3.65654449e-03 -6.52838051e-02 -2.56358720e-02 -5.23661496e-04
      -1.03924386e-02 -2.17432268e-02 -1.98265035e-02 -3.06424648e-02
      2.67955177e-02 -4.65576462e-02 -9.84306168e-03 -4.07637730e-02
      -3.01891770e-02 -1.13398125e-02 -1.12261213e-02 9.83858947e-04
      5.44357207e-03 1.13831945e-01 5.40665649e-02 -4.97795492e-02
      4.31630686e-02 0. -1.89613216e-02 -7.78164621e-03 -5.03164530e-03
      -2.14901892e-03 6.17904291e-02 -7.44400825e-03 -2.51681302e-02
      -5.76287275e-04 -1.48786223e-02 8.66213161e-03 -9.26588848e-03
      -1.62919108e-02 4.80682310e-03 -3.46396212e-03 1.26786390e-02
      4.29391349e-03 1.52560249e-02 2.89324322e-03 -1.28634144e-02
      6.79715052e-02 -4.34309710e-03 2.16186363e-02 -1.17910057e-02
      -2.67927744e-03 3.68703678e-02 5.28577995e-03 6.08380651e-03
      -1.22090913e-02 5.36995232e-02 -2.29065469e-03 3.20773711e-03
      -3.64572043e-04 -3.51135321e-02 5.75351492e-02 1.62234483e-03
      -1.32320318e-02 2.19855793e-02 9.21948580e-04 2.42770780e-02
      -3.46590229e-03 1.37532894e-02 8.78275651e-03 -6.27315324e-03
      2.83593731e-03 9.77541786e-03 1.13458838e-02 4.32900386e-04
      -8.88556894e-03 -2.95558255e-02 3.67941568e-04 2.04945393e-02
      -7.03524873e-02 1.84339099e-02 8.49915296e-03 -5.53019531e-02
      -2.57141655e-03 5.04789986e-02 -1.44272586e-02 4.04722197e-03
      -2.39210557e-02 3.46870571e-02 -2.77262158e-03 -2.67269965e-02
      -5.98915620e-04 -2.32735481e-02 -9.45075229e-03 -5.12048136e-04
      1.45673761e-02 -1.77321061e-02 -8.08132347e-03 1.03124995e-02
      -7.59203825e-03 -3.72572569e-03 -1.77602284e-02 -2.16822568e-02
      -9.81341768e-03 -1.78643782e-02 -2.80112051e-03 -6.28057774e-03
      2.09567836e-03 5.18134702e-03 -6.69105770e-03 -3.20985354e-02
      -9.95196328e-02 7.78039265e-03 1.64865181e-02 -1.02082761e-02
      -4.89162803e-02 3.60910804e-03 -3.11338063e-02 1.81293786e-02
      -2.10694764e-02 0. 8.84011481e-03 1.01781497e-03 5.42705739e-03
      2.94851102e-02 4.40256763e-03 -1.38765639e-02 -7.78271537e-03
      6.39101258e-04 -1.55439060e-02 -1.06723858e-02 -5.29289898e-03
      6.60062395e-03 -6.59215357e-03 3.86097888e-03 -6.43976778e-03
      -1.21325115e-02 8.51122849e-03 -5.52481133e-03 1.61386337e-02
      1.57880806e-03 4.40456159e-02 0. -4.17257007e-03 -5.71758114e-03
      6.06240239e-03 -7.42228180e-02 -1.33576328e-02 -2.89855083e-03
      -2.24222317e-02 -4.77375276e-03 9.75628849e-03 -2.63374224e-02
      7.57247657e-02 3.96780483e-03 -1.07675381e-02 4.46208790e-02
      -9.12155677e-03 -1.09684855e-01 -3.32918614e-02 -2.44271457e-02
      -3.93962711e-02 -2.14613918e-02 4.83141374e-03 -1.32037243e-02
      -8.55640788e-03 2.12807544e-02 -5.37356315e-03 -6.40382469e-02
      -1.58540942e-02 -3.75660625e-03 2.31581572e-02 -2.30904892e-02
      1.77508779e-02 -4.97910287e-03 -1.22500043e-02 -9.23379092e-04
      -2.29805876e-02 2.41355170e-02 1.72074307e-02 1.38480648e-01
      -1.82106607e-02 -5.71469888e-02 8.99278931e-03 -1.05725392e-03
      -3.25495750e-02 -2.60727061e-03 3.74630094e-03 1.24428906e-02
      -5.03212865e-03 -6.96732895e-04 6.46218006e-03 8.13430827e-03
      2.02625785e-02 -3.39842634e-03 -1.24657340e-02 -2.80198851e-03
      2.00085305e-02 1.48631148e-02 1.30175659e-02 -6.91217091e-03
      2.46424396e-02 -1.57286040e-02 2.47090552e-02 -2.07550311e-03
      -7.51974061e-03 -1.06932828e-04 -1.88552756e-02 2.18156017e-02
      -3.17402072e-02 3.25244106e-02 2.26899027e-03 4.73958999e-02
      -1.76930837e-02 -1.72973964e-02 -9.75873414e-03 2.07669605e-02
      -1.03333332e-02 -1.36608761e-02 -8.90626572e-03 -5.37066534e-02
      -1.74832474e-02 -9.75304283e-05 2.73360983e-02 -7.65720941e-03
      -1.20389508e-03 -8.57689418e-03 -1.92266051e-02 1.35677680e-02
      3.89270969e-02 5.20483777e-03 -1.30561784e-01 -1.60789723e-03
      1.62012409e-04 1.17350947e-02 2.76106689e-03 5.04190624e-02
      -9.60632460e-04 -6.80084340e-04 -3.59013081e-02 1.72132719e-02
      -8.10559001e-03 8.14055093e-05 -7.49999983e-03 1.38727510e-02
      -1.24992933e-02 -3.32558118e-02 2.42722761e-02 -2.25390634e-03
      -7.84709118e-03 -6.94593135e-03 5.47923520e-03 4.22264449e-03
      -9.43964347e-02 -7.47871865e-03 -8.22373945e-03 -2.41794549e-02
      4.21540765e-03 -4.20587435e-02 6.04010448e-02 1.00840237e-02
      -7.61354044e-02 6.70785010e-02 -5.27150556e-02 -4.81393188e-04
      4.87784036e-02 -8.36080592e-03 -8.98849964e-03 8.75678845e-03
      4.95909527e-03 -1.26895279e-01 3.15121515e-03 -1.42430188e-04
      -1.27180563e-02 1.81603222e-03 -4.36943769e-03 1.37422439e-02
      1.86903737e-02 1.03139263e-02 1.50097590e-02 2.77214460e-02
      4.29697707e-03 -3.19778686e-03 9.39706620e-03 -2.11593183e-03
      2.49295775e-02 -1.84575822e-02 -1.50438398e-02 -1.30798873e-02
      8.86212215e-02 -2.46385671e-03 8.52634758e-03 -1.66465715e-02
      -4.33464125e-02 -1.13614369e-04 -6.44046068e-03 -4.75866236e-02
      5.80741093e-04 1.60606280e-02 -2.90546450e-03 6.14316016e-03
      -3.90347093e-02 -1.60315316e-02 -3.51643143e-03 -5.09267952e-03
      -3.25449631e-02 -6.91856723e-03 -1.18303690e-02 1.43422708e-02
      -1.05146402e-02 -7.92087708e-03 1.55725963e-02 -6.93079084e-03
      -1.05938641e-02 3.43929976e-03 3.64043820e-03 -1.51765933e-02
      -4.31003831e-02 3.97467874e-02 7.97947403e-03 -1.43693518e-02
      -1.06582306e-02 7.00463029e-03 2.38024071e-02 8.67283903e-03
      -7.08089676e-03 -1.23170223e-02 0. 7.49999983e-03 3.61668831e-03
      6.94564916e-03 -9.48951021e-03 2.54707616e-02 -1.42624537e-02
      1.35574825e-02 2.40967907e-02 -1.47021776e-02 -1.02541978e-02
      1.19803548e-02 1.64652057e-02 2.48004589e-02 1.64376765e-01
      2.37668920e-02 1.25251571e-02 1.48631930e-02 8.10487662e-04
      -1.57455429e-02 -4.86002676e-03 6.46756496e-04 9.07895993e-03
      -3.23205180e-02 -5.27754799e-03 -5.53281978e-03 5.01889177e-03
      5.44212908e-02 -6.45749494e-02 4.42647561e-02 7.22964294e-03
      -2.55725998e-02 -6.24000654e-02 -9.19778943e-02 -2.04283576e-02
      8.06611776e-03 1.82632497e-03 1.01469997e-02 -6.23776838e-02
      2.77067237e-02 -2.94801202e-02 -9.48664080e-03 -9.34410095e-03
      2.48110830e-03 -2.83000134e-02 -2.64876755e-03 1.11589925e-02
      -2.84411758e-02 -1.32560339e-02 -1.03519009e-02 3.71920243e-02
      -9.94846923e-04 -5.77376001e-02 -9.67446063e-03 -5.54919429e-03
      -1.10151529e-01 -6.56752884e-02 -2.52308161e-03 -1.90777425e-02
      -3.62046584e-02 -1.89838465e-05 -1.37481526e-01 1.96325071e-02
      -2.24697404e-02 1.14600994e-02 2.79650092e-04 4.39481586e-02
      -8.73643346e-03 -1.04078911e-02 -7.50665972e-03 4.60710227e-02
      9.03022010e-03 -7.54256826e-03 -2.44574039e-03 -2.67179334e-03
      8.55841115e-03 3.04803252e-04 -1.23430356e-01 -1.95107162e-02
      -1.68186519e-03 9.68112610e-03 -1.23560270e-02 6.88994583e-03
      2.90402658e-02 -3.06963176e-02 2.23944373e-02 -1.62743917e-03
      5.84555194e-02 -2.20260154e-02 5.01889177e-03 -5.08816447e-03
      -1.27561344e-02 -1.16589013e-02 1.16829444e-02 -1.83811807e-03
      1.33285299e-04 -1.27031058e-02 2.33870950e-02 1.95499277e-03
      1.26715889e-02 1.38074290e-02 -9.01107490e-03 1.01886839e-02
      3.31731476e-02 3.63834798e-02 -3.66283804e-02 -1.07691891e-01
      -7.25194160e-03 -1.53618595e-02 -1.46405492e-02 -2.11995468e-03
      -2.41229143e-02 3.03805023e-02 -1.49417631e-02 1.35447932e-02
      2.06858069e-02 1.01272184e-02 6.33902699e-02 3.67676886e-03
      1.23195581e-01 3.21225659e-03 6.77818945e-03 4.84001152e-02
      1.97088066e-02 -5.03807096e-03 6.61056628e-03 -1.84623478e-03
      -9.99999978e-03 -2.51256279e-03 4.50423220e-04 -2.49999994e-03
      3.46770361e-02 8.39662272e-04 -2.21012030e-02 -2.38211080e-03
      5.53493947e-03 -2.59201694e-02 -1.01401377e-02 -7.01339217e-03
      3.26475054e-02 -1.43080242e-02 4.85708676e-02 -1.41436588e-02
      3.89465736e-03 -1.27534829e-02 2.38213688e-04 -9.99999978e-03
      8.24367069e-03 7.51889125e-03 1.23751424e-02 3.70540433e-02
      -2.47399975e-03 1.67549290e-02 1.83820054e-02 -1.24777737e-03
      6.18116930e-03 -8.67194831e-02 6.80003315e-02 1.88945346e-02
      7.13720843e-02 -8.25909898e-02 -6.01913780e-05 1.08422944e-03
      4.26294049e-04 4.46011424e-02 8.95080157e-04 3.45534980e-02
      9.42395069e-03 -4.99999989e-03 -2.10440941e-02 -3.62522639e-02
      1.04550168e-01 5.03807096e-03 2.50227433e-02 -2.22109258e-02
      1.62082165e-02 4.46836278e-02 2.68817204e-03 2.49999994e-03
      -1.53333200e-02 2.25302717e-03 1.40237645e-03 -7.81490654e-03
      -3.40567413e-03 -6.71635754e-03 7.15528987e-03 6.58445805e-02
      1.55588184e-02</_></support_vectors>
  <decision_functions>
    <_>
      <sv_count>1</sv_count>
      <rho>1.8242684425786138e-02</rho>
      <alpha>
        1.</alpha>
      <index>
        0</index></_></decision_functions></my_svm>
</opencv_storage>
