<?xml version="1.0"?>
<opencv_storage>
<my_svm type_id="opencv-ml-svm">
  <svm_type>C_SVC</svm_type>
  <kernel><type>LINEAR</type></kernel>
  <C>1.</C>
  <term_criteria><epsilon>1.1920928955078125e-07</epsilon>
    <iterations>1000</iterations></term_criteria>
  <var_all>1000</var_all>
  <var_count>1000</var_count>
  <class_count>2</class_count>
  <class_labels type_id="opencv-matrix">
    <rows>1</rows>
    <cols>2</cols>
    <dt>i</dt>
    <data>
      0 1</data></class_labels>
  <sv_total>1</sv_total>
  <support_vectors>
    <_>
      5.63577749e-02 -5.11389673e-02 3.50660644e-03 1.03026461e-02
      -4.89229001e-02 -2.50274725e-02 5.76325646e-03 1.15817413e-04
      3.69237155e-01 -5.08106202e-02 -1.97951309e-02 -1.01291593e-02
      6.13131095e-04 -5.47844172e-03 1.79415173e-03 -1.34235611e-02
      -1.22227762e-02 -1.48013709e-02 -2.75627598e-02 4.60350029e-02
      3.22836339e-02 5.45282662e-03 5.13599925e-02 -1.21464254e-04
      -4.24760059e-02 -1.88800283e-02 5.35284169e-02 -8.64091329e-03
      2.23472528e-02 -8.06885399e-03 3.21025066e-02 7.55102001e-03
      -7.93749392e-02 1.12644862e-02 3.78335565e-02 -1.49088372e-02
      -1.01044662e-02 6.20774813e-02 1.99713930e-02 -4.79579717e-02
      3.82960914e-03 -2.85834558e-02 3.91932651e-02 2.47852206e-02
      -4.49449830e-02 -2.43708468e-03 4.07973528e-02 -6.54166192e-03
      -2.09337398e-02 4.26184162e-02 1.26248142e-02 -1.35692256e-02
      -6.38722675e-03 1.25967124e-02 -3.60173397e-02 2.24128775e-02
      -7.03911297e-04 -9.10377502e-03 -1.93217248e-02 1.86894014e-02
      2.42415369e-02 4.09687757e-02 -3.63700055e-02 1.02664735e-02
      2.36974210e-02 -5.21513149e-02 -6.56031817e-02 -9.50351171e-03
      2.45442800e-03 -8.06938857e-03 1.37251541e-02 8.72565713e-03
      2.34480202e-02 -2.51410063e-02 -1.13898991e-02 -8.26423168e-02
      2.97961757e-02 1.27151916e-02 7.79826287e-03 -5.36099449e-03
      1.00431088e-02 -7.06127509e-02 -5.50466031e-03 -3.97681482e-02
      1.32972868e-02 -8.52076057e-03 -3.67093347e-02 -3.31045091e-02
      1.88349858e-02 3.73771717e-03 2.01188009e-02 9.19988146e-04
      -2.27872618e-02 -2.07214616e-05 2.91242629e-01 5.23713417e-03
      -1.58553794e-02 -1.85829811e-02 4.63870913e-03 3.21949348e-02
      -1.46942958e-03 1.66666694e-04 -2.24223193e-02 1.07306335e-02
      -1.23793799e-02 1.11559946e-02 -3.49564431e-03 1.20729171e-02
      -1.90730467e-02 -4.47914563e-03 -3.66511233e-02 1.79127790e-02
      -3.30955745e-03 -4.92890440e-02 -2.75230240e-02 4.09511998e-02
      -1.57068148e-02 -3.92838381e-02 -1.32886935e-02 -8.92443769e-03
      -2.53549181e-02 6.68678619e-03 1.95567706e-03 -2.02661511e-02
      -1.34289702e-02 1.87153406e-02 5.46962488e-03 6.79446990e-03
      3.32702808e-02 9.11567882e-02 -1.00693591e-02 1.41458679e-02
      -3.86174507e-02 -9.84447822e-03 9.43150073e-02 -4.85693067e-02
      -2.04221457e-02 9.58479848e-03 1.05139203e-02 4.37357873e-02
      1.60838217e-02 3.94034795e-02 -1.08709158e-02 -1.27783390e-02
      -2.92561343e-03 2.46531945e-02 -1.53261442e-02 -7.17647821e-02
      -6.06729370e-03 3.80950887e-03 -9.03377403e-03 -1.15240482e-03
      -6.35123104e-02 -1.49460614e-01 2.11752430e-02 -4.98907315e-03
      3.14294593e-04 9.25147533e-03 6.95608780e-02 2.90181208e-02
      -1.45137496e-02 -1.28850993e-02 -9.52280685e-02 -3.54196876e-04
      7.56730000e-03 5.49711566e-03 -9.89754591e-03 1.70278270e-02
      -2.05224063e-02 -1.33053865e-03 1.12650804e-02 4.39917184e-02
      1.44540388e-02 -6.52522920e-03 -9.80483219e-02 -1.04490211e-02
      -1.57033261e-02 -1.96266882e-02 -9.68889333e-03 1.30659975e-02
      3.21548842e-02 -2.74129361e-02 -6.15303172e-03 -1.28138382e-02
      3.32828276e-02 2.39147991e-02 -5.69182076e-02 -5.53324819e-03
      5.06925210e-03 3.67688686e-02 2.83317231e-02 -3.04243825e-02
      1.02925412e-02 1.98104652e-03 6.69871829e-03 -5.33614755e-02
      2.20655482e-02 -2.95705488e-03 6.97036181e-03 2.91734915e-02
      -9.47945751e-04 5.21450816e-03 3.95728759e-02 -7.69503415e-03
      -7.60657266e-02 1.00053385e-01 -8.22983906e-02 -2.19874140e-02
      7.37812817e-02 2.04031710e-02 -2.94564664e-02 2.41320729e-01
      2.57421518e-04 -4.46007624e-02 -4.66351211e-02 -2.72608530e-02
      -1.08603770e-02 3.89061347e-02 -3.01686972e-02 1.05300336e-03
      3.72616090e-02 -8.36240593e-03 -6.81377063e-03 -1.12043731e-02
      -1.35280993e-02 -3.86013626e-03 3.20038170e-01 -7.45679904e-03
      5.02954470e-04 -5.47791505e-03 4.39332146e-03 6.24351427e-02
      2.04212088e-02 9.81994122e-02 -5.00798337e-02 3.42819728e-02
      -1.00623518e-02 2.56060180e-03 1.96865527e-03 -1.26204761e-02
      1.50325913e-02 7.63789564e-03 6.43223077e-02 -8.44284426e-03
      -6.60085455e-02 3.01662944e-02 4.88249809e-02 -1.86580066e-02
      -5.31981606e-03 7.41721168e-02 3.32830031e-03 3.96038368e-02
      -4.79346476e-02 4.41834796e-03 -4.88841441e-03 -1.72776729e-03
      -2.64508221e-02 1.59311052e-02 -5.78947365e-03 -5.52838109e-03
      5.29668480e-02 6.02386445e-02 1.38969243e-01 0. 8.28246325e-02
      -3.67969507e-03 5.29542705e-03 -3.70329767e-02 -2.77352333e-02
      -1.14283869e-02 8.61921627e-03 3.38675454e-04 6.77115321e-01
      -5.94998486e-02 -5.07917954e-03 7.97308162e-02 -8.70078504e-02
      -1.37248375e-02 -1.32537773e-02 1.39289470e-02 -1.06596537e-02
      4.22620848e-02 -8.50457512e-03 -4.99999989e-03 2.43116766e-02
      1.24849249e-02 -1.62101798e-02 -7.81814381e-03 -1.60079226e-02
      -1.57998577e-02 -3.34058097e-03 -4.51350436e-02 -3.73300053e-02
      9.99999978e-03 1.30486879e-02 -1.66796744e-02 -1.25654740e-03
      5.68147190e-03 2.99559161e-03 9.96406842e-03 3.01559479e-03
      -2.16832384e-02 -4.80599813e-02 -1.92345120e-02 1.35542070e-02
      -1.55474935e-02 -2.28818301e-02 9.82710868e-02 -4.99999989e-03
      -2.49566659e-02 -4.36026677e-02 -2.26344983e-03 -4.11725491e-02
      2.61612982e-02 -5.28709125e-03 8.64875410e-03 -3.39041203e-02
      2.96239508e-03 -5.31634800e-02 1.39887230e-02 -1.12872971e-02
      -1.44802239e-02 2.85241976e-02 3.28290835e-02 7.25968778e-02
      -4.66902833e-03 -5.58227748e-02 0. -1.42294671e-02 -6.66255057e-02
      -2.91921012e-02 -2.86797173e-02 -6.41583428e-02 -1.43341329e-02
      2.32202306e-01 1.81646142e-02 -4.38205618e-03 4.69699223e-03
      -4.05164622e-02 7.00261677e-04 -5.31099970e-03 3.80143002e-02
      -1.24294991e-02 -1.09174706e-01 -1.01051427e-01 -3.79288718e-02
      -5.98310586e-03 3.53400433e-03 -7.14021996e-02 -2.22613886e-02
      3.45993508e-03 3.55699435e-02 2.35663801e-02 2.10298714e-03
      3.71547695e-03 2.32422072e-02 -4.98043448e-02 -6.47711987e-03
      -8.94829631e-02 -3.06938607e-02 -9.71798152e-02 -2.03980505e-02
      -1.01041663e-02 -3.03508975e-02 -2.49291677e-02 1.70976259e-02
      -4.18370552e-02 -3.35403392e-03 8.10045749e-03 1.37783587e-02
      2.07944959e-02 1.26988962e-02 3.07920221e-02 -6.36003166e-02
      5.56299806e-01 2.06329282e-02 -4.77742683e-03 3.03025972e-02
      2.62285639e-02 -2.32725823e-03 -3.83378640e-02 -2.52563762e-03
      5.37128597e-02 2.75868783e-03 -1.24617897e-01 -1.31902378e-02
      -9.76080727e-03 -7.31520578e-02 -5.93119161e-03 -7.88968243e-03
      -9.78997257e-03 7.46834092e-03 -6.37712181e-02 -1.24378763e-02
      -2.76871640e-02 -7.19056092e-03 5.30579966e-03 -3.81680462e-03
      1.80897918e-02 -1.38907135e-03 -1.29973553e-02 -6.18249178e-02
      -9.08645615e-03 -2.15525217e-02 1.91131253e-02 -3.10559012e-03
      -2.29809865e-01 -5.25620319e-02 3.41241457e-03 -2.96904724e-02
      -4.92251944e-03 3.12905759e-02 1.29783619e-03 2.31906340e-01
      5.26237413e-02 7.98577815e-03 -2.00199001e-02 -1.75613556e-02
      -1.23588247e-02 6.39014840e-02 -1.77425295e-02 1.64835043e-02
      5.14587499e-02 -2.49999994e-03 -5.47268316e-02 3.36671360e-02
      -5.40541336e-02 1.84277013e-01 7.45576108e-04 3.02112289e-02
      -5.22169098e-03 8.00357200e-03 -1.87790189e-02 3.54830176e-02
      -1.66676473e-05 -1.57265197e-02 -1.85032971e-02 3.29592940e-03
      -3.00076250e-02 -1.25976512e-03 -2.49999994e-03 1.38386451e-02
      -9.42768678e-02 -5.86260632e-02 -6.09076349e-03 6.37246147e-02
      -3.03574800e-02 -1.81683023e-02 -4.21636961e-02 5.00108600e-02
      1.43259135e-03 -1.39206126e-02 -3.91618675e-03 -1.90758239e-03
      -1.26202200e-02 -4.08997610e-02 -1.79699529e-02 -2.62679625e-02
      3.22989258e-03 -3.19281667e-02 1.82974394e-02 -9.33444360e-04
      -1.45018036e-02 -2.23825127e-02 -1.29553834e-02 5.04404865e-03
      -8.79203435e-05 -1.68439429e-02 3.52002531e-02 -2.69632004e-02
      9.62044671e-03 6.59316871e-03 -8.06916654e-02 -7.89185315e-02
      -1.36880893e-02 -5.61502874e-02 -2.23669619e-03 -2.26426497e-02
      -3.70697305e-02 1.71854403e-02 -4.84554395e-02 -2.32671928e-02
      -8.93639773e-03 -1.89943239e-02 2.31948439e-02 -2.47509573e-02
      -1.60829835e-02 -5.37018804e-03 2.07841322e-02 -1.96031798e-02
      1.58597771e-02 -3.82762738e-02 7.95864733e-04 -4.98110801e-03
      -3.33693437e-03 4.14385051e-02 3.28977220e-03 3.15110497e-02
      -2.15216521e-02 1.76821239e-02 -3.28531712e-02 1.27056157e-02
      2.63618045e-02 2.47345511e-02 3.46389879e-03 2.18930617e-02
      -7.52233621e-03 5.58737433e-03 2.32689977e-02 1.22409441e-01
      -9.77554079e-03 3.45789455e-02 -9.25318748e-02 -3.25943306e-02
      -2.10149437e-02 -2.57418603e-02 -2.43723067e-03 -3.31403092e-02
      9.77009349e-03 -2.06921119e-02 -1.77350431e-03 -1.01419156e-02
      1.92019460e-03 1.55521389e-02 7.59310229e-03 -9.05063897e-02
      2.16702353e-02 3.17593142e-02 -1.19685568e-01 -1.06928209e-02
      -3.20708826e-02 1.01667568e-02 -3.67942005e-02 -9.69251990e-03
      7.63072371e-02 -2.19100970e-03 -1.88540295e-02 1.18213426e-02
      -7.48743676e-03 -5.14383540e-02 6.80726022e-03 -1.56066818e-02
      -1.07160546e-02 -3.47929150e-02 -1.56254508e-02 1.28502324e-02
      4.95669469e-02 1.50315195e-01 3.73466089e-02 9.04492103e-03
      -1.72573850e-02 5.11079691e-02 -1.50895854e-02 1.31579116e-04
      6.22223318e-03 6.16700482e-03 -6.66521303e-03 2.53439806e-02
      -2.85459366e-02 2.01243702e-02 -6.30631149e-02 1.98721029e-02
      -2.77590267e-02 -1.86292768e-01 5.28914155e-03 8.56272411e-03
      -1.07846200e-01 1.43368845e-03 3.73659320e-02 -1.26881720e-02
      1.95384026e-02 1.45467073e-02 1.78355388e-02 1.97818615e-02
      -6.42552506e-03 -1.19009158e-02 1.44602461e-02 -1.11649111e-02
      -4.28100899e-02 9.84027237e-03 -2.82647349e-02 2.49999994e-03
      -1.97439771e-02 4.00657542e-02 8.56505781e-02 -1.15756057e-02
      1.72609519e-02 -1.11626372e-01 -6.06317520e-02 -3.34433578e-02
      -1.03105359e-01 1.63652115e-02 -8.11214838e-03 -1.57985147e-02
      2.84249615e-03 3.37105133e-02 -1.82445254e-02 -9.44012403e-02
      -1.93066355e-02 -1.66854784e-02 7.31119793e-03 1.06564179e-01
      1.85012281e+00 5.48761003e-02 8.13478008e-02 6.48645535e-02
      1.56029528e-02 -5.16254641e-02 -1.39384672e-01 -3.41467671e-02
      -4.29772064e-02 -3.96273099e-03 4.54439037e-02 1.14110569e-02
      -6.95569739e-02 2.10235291e-03 -6.06101304e-02 2.05225646e-02
      -4.44126315e-02 -1.07681332e-02 -2.00323369e-02 1.08217848e-02
      4.55958210e-03 -4.59372159e-03 -6.05434831e-03 -2.07550842e-02
      -5.80735207e-02 -5.41745052e-02 -2.47233324e-02 -3.75949815e-02
      1.73199084e-02 -6.08601049e-03 -1.28967362e-02 -2.49999994e-03
      1.27856415e-02 -2.76627429e-02 -1.32552972e-02 -5.40975742e-02
      2.76683923e-03 1.78726111e-02 3.66755109e-03 -2.64436547e-02
      2.51385923e-02 2.49666590e-02 -1.11672701e-03 -1.97885353e-02
      -3.98292579e-02 1.12811811e-02 5.62785007e-03 -3.21126822e-03
      -1.57608539e-01 -1.20913826e-01 -2.53328849e-02 6.49337620e-02
      1.47010088e-02 7.47258356e-03 7.07610771e-02 1.09202527e-02
      -7.15909060e-03 -4.11431072e-03 4.33559809e-03 -1.32923573e-02
      -1.28090279e-02 -4.90731001e-03 3.23945959e-03 -1.36913294e-02
      -2.26430111e-02 -6.18961900e-02 1.30805438e-02 -1.09168895e-01
      2.79897824e-02 -1.14317946e-01 1.13162315e-02 -7.48851299e-02
      6.01697247e-04 -2.08139792e-02 -1.06121926e-02 2.96371058e-02
      -3.18132751e-02 1.78498738e-02 -9.41193197e-03 -1.07975826e-01
      2.62954570e-02 2.98837908e-02 1.15326419e-02 5.73412366e-02
      9.77591239e-03 1.55224008e-02 1.47139011e-02 -6.25793496e-03
      -3.81742837e-04 -1.84805039e-02 2.33674198e-02 -7.15145096e-03
      3.68896499e-03 4.74668071e-02 2.16896576e-03 -1.44867543e-02
      -3.53902653e-02 2.97702220e-03 2.58485060e-02 3.67678981e-03
      -2.63069905e-02 -5.21539375e-02 -7.72357965e-03 1.19531527e-02
      -2.40164082e-02 -1.77840255e-02 -2.73707025e-02 -1.70823149e-02
      2.55901227e-03 -2.33473089e-02 -2.32773237e-02 -8.84978753e-03
      -8.92182626e-03 -1.84630742e-03 3.19448933e-02 -7.97506887e-03
      1.42834082e-01 4.29427885e-02 4.54824716e-02 6.49863631e-02
      -1.25102885e-03 2.51889159e-03 -8.25131461e-02 -4.74777147e-02
      -8.86164606e-03 -1.83426440e-02 2.00493708e-02 -4.98185633e-03
      -4.75189881e-03 4.82708495e-03 -6.26825020e-02 -3.64759415e-02
      3.62035818e-04 -2.02552676e-02 -1.46633424e-02 1.73832942e-02
      3.48069556e-02 -2.05411687e-01 -6.39914051e-02 3.41776498e-02
      -6.94478452e-02 -2.51094364e-02 -2.11812239e-02 -7.71820825e-03
      -7.70549383e-03 -2.75728963e-02 -1.12111801e-02 4.64245211e-03
      -6.90231379e-03 -4.47309576e-05 5.12630418e-02 1.59736071e-02
      -1.13941804e-02 -2.78840549e-02 -1.24372020e-02 -1.18184704e-02
      2.44632382e-02 -9.64488462e-02 2.60360166e-03 1.58877317e-02
      4.70534936e-02 2.25545540e-02 1.78343896e-02 -1.23687014e-02
      5.18817175e-03 1.52102774e-02 -6.29722998e-02 -7.97963236e-03
      -7.13393912e-02 -2.53289249e-02 -8.52945447e-03 8.72433884e-04
      -1.23338914e-02 -1.15298750e-02 2.37746257e-03 -6.64351182e-03
      1.19587686e-02 5.56478463e-03 -5.93254939e-02 1.63678769e-02
      3.32056470e-02 -2.25924756e-02 -1.78945269e-02 9.25265998e-03
      -1.85915660e-02 8.40585213e-04 -4.82998751e-02 -1.07191140e-02
      2.54181713e-01 -3.29694338e-02 1.41472686e-02 3.98432948e-02
      -8.43117684e-02 -4.63814754e-03 -1.05312228e-01 -2.14413069e-02
      7.51101598e-03 6.58368599e-03 9.28501226e-03 -1.88237019e-02
      3.67138162e-03 1.76179968e-03 5.12467185e-03 -3.23312208e-02
      -2.54434883e-03 -2.82165427e-02 -7.27976710e-02 -4.04294394e-02
      -4.39393595e-02 7.39632361e-03 1.13881588e-01 3.76169495e-02
      -6.12159539e-03 -3.76843624e-02 -3.32512856e-02 6.49174452e-02
      -1.55673966e-01 6.03967011e-02 3.93917318e-04 2.37158500e-02
      9.64062661e-03 1.74168628e-02 3.68232932e-03 -1.11481678e-02
      -4.11364138e-02 -1.21943224e-02 -3.69910290e-03 -1.16814427e-01
      -2.68829707e-02 1.24505229e-01 -3.90281947e-03 3.09842266e-03
      -3.56476605e-02 6.26826379e-03 1.11277193e-01 -3.03501617e-02
      3.60102355e-02 2.63748690e-02 -1.87538452e-02 4.15238179e-03
      4.58735526e-02 -1.72546413e-02 1.01568699e-02 -2.09406257e-01
      -6.05590176e-04 1.41084590e-03 -2.17037871e-02 1.69330202e-02
      -5.39097982e-03 1.49401696e-02 1.32962465e-02 -3.07422243e-02
      -3.75052132e-02 -1.54116765e-01 1.30891260e-02 -3.28708775e-02
      -1.10997045e-02 1.12315759e-01 1.60503015e-02 5.41253686e-02
      -5.98289371e-02 -8.43370426e-03 4.83103395e-02 -7.95360431e-02
      8.11797753e-03 4.38037841e-03 7.63724465e-03 -1.10981390e-01
      -2.07526125e-02 -8.38471875e-02 1.36200532e-01 -5.98983914e-02
      -1.27819497e-02 -5.22132739e-02 -3.21526006e-02 -7.31032807e-04
      -1.69280451e-04 9.42075811e-03 2.36832518e-02 -2.99426988e-02
      1.70340091e-02 -5.78947365e-03 -1.99974030e-02 -6.33011479e-03
      1.70540772e-02 -1.49025664e-01 -1.30439075e-02 -6.21389505e-03
      6.34657685e-03 -1.35347638e-02 2.54853442e-03 -1.34028331e-03
      -7.33969547e-03 5.31388782e-02 4.08281758e-02 -2.82402821e-02
      8.49854201e-03 -5.75819146e-03 2.23077983e-02 1.56993289e-02
      -4.43373732e-02 7.41008762e-03 8.28529373e-02 -8.53005238e-03
      -3.59701063e-03 2.53215972e-02 -7.25386757e-03 8.69789720e-03
      2.83911638e-03 -2.65340935e-02 8.08073580e-03 -2.51262486e-02
      2.77065076e-02 -1.68533735e-02 -4.03167270e-02 1.29281282e-02
      -1.69153269e-02 1.82404444e-02 5.65654319e-03 -1.50349466e-02
      -8.99743140e-02 2.92093027e-02 -3.59196514e-02 6.29467191e-04
      -2.41053421e-02 1.35829579e-02 7.65644992e-03 1.22797200e-02
      2.86457054e-02 -2.66443603e-02 2.02071518e-02 -2.33902689e-02
      -5.61105646e-03 1.23085365e-01 8.45294297e-02 2.28704996e-02
      9.41696391e-03 -2.42697969e-02 -1.68206729e-02 2.30875369e-02
      1.78370886e-02 5.69554279e-03 4.69766138e-03 -1.33926803e-02
      -1.37953013e-02 -2.56521367e-02 -5.86957391e-03 -4.92819212e-02
      -3.01871896e-02 1.13094542e-02 6.16338551e-02 -3.88184786e-02
      1.30471885e-02 2.50412291e-03 -5.79501735e-04 -3.38657945e-03
      -2.44627404e-03 5.50026521e-02 -5.03344554e-03 -8.27231351e-03
      6.27524452e-03 2.44880039e-02 -1.18005285e-02 4.71147820e-02
      -2.03038044e-02 -5.04059419e-02 -4.90932632e-03 5.77390976e-02
      5.20628877e-04 5.34581160e-03 2.89382655e-02 -1.33758131e-02
      1.25144264e-02 -2.80017741e-02 2.03711800e-02 2.59034079e-03
      -3.35140042e-02 -1.32798906e-02 1.13769323e-02 1.01035964e-02
      2.30111908e-02 1.04792088e-01 1.40492395e-02 -1.89421084e-02
      1.33445580e-02 -3.95235233e-03 -9.23541933e-03 7.24433586e-02
      -7.78911961e-03 -3.55496909e-03 2.87535302e-02 4.70670406e-03
      -1.07617974e-02 1.54068358e-02 3.58266160e-02 -1.78307332e-02
      -7.91253150e-03 -5.04436530e-03</_></support_vectors>
  <decision_functions>
    <_>
      <sv_count>1</sv_count>
      <rho>2.0707765343831852e-01</rho>
      <alpha>
        1.</alpha>
      <index>
        0</index></_></decision_functions></my_svm>
</opencv_storage>
