<?xml version="1.0"?>
<opencv_storage>
<my_svm type_id="opencv-ml-svm">
  <svm_type>C_SVC</svm_type>
  <kernel><type>LINEAR</type></kernel>
  <C>1.</C>
  <term_criteria><epsilon>1.1920928955078125e-07</epsilon>
    <iterations>1000</iterations></term_criteria>
  <var_all>1000</var_all>
  <var_count>1000</var_count>
  <class_count>2</class_count>
  <class_labels type_id="opencv-matrix">
    <rows>1</rows>
    <cols>2</cols>
    <dt>i</dt>
    <data>
      0 1</data></class_labels>
  <sv_total>1</sv_total>
  <support_vectors>
    <_>
      2.65306979e-01 -3.27279456e-02 -3.44262160e-02 -9.58318263e-02
      -4.35246062e-03 1.07446574e-01 1.62750915e-01 3.82271083e-03
      -2.58316882e-02 2.90653817e-02 -1.80032775e-02 6.71743834e-03
      -2.50083935e-02 -8.29923004e-02 -5.17023131e-02 3.83762181e-01
      1.46947857e-02 2.32790515e-01 -1.88109614e-02 1.40326127e-01
      -8.30832273e-02 -3.82662863e-02 3.79543267e-02 1.60648208e-02
      7.61020780e-02 -5.10036685e-02 -3.76861468e-02 1.88122820e-02
      9.23134312e-02 1.33469095e-02 6.26593351e+00 1.58894118e-02
      7.04447404e-02 -4.87242341e-02 -2.16736048e-02 -6.06145263e-02
      3.45804468e-02 -1.99975684e-01 -8.81573379e-01 5.57969660e-02
      -5.51986285e-02 6.62346650e-03 -3.58237769e-03 4.13891301e-02
      5.58498129e-03 -6.88249767e-02 2.78410199e-03 8.84187222e-03
      -6.80479035e-03 -5.63256033e-02 -8.22174996e-02 2.23381855e-02
      3.76585908e-02 8.49354314e-04 -1.35151640e-01 -4.18795571e-02
      -7.63675123e-02 -6.38149399e-03 9.56708491e-02 -5.35884406e-03
      1.41765743e-01 -2.91721344e-01 -2.23950386e-01 -4.10595126e-02
      -9.09034908e-02 -2.88296137e-02 1.44742569e-03 5.86027317e-02
      3.38876969e-03 -2.22962230e-01 1.09623209e-01 -4.06491347e-02
      -9.99950692e-02 2.96557182e-03 -6.89874403e-03 1.75797585e-02
      6.52724411e-03 5.86556755e-02 -4.60002385e-02 3.57528962e-02
      1.17321692e-01 4.38248459e-03 1.95642980e-03 -2.80428380e-02
      1.03191659e-02 -2.33658347e-02 -5.22916531e-03 -1.38260782e-01
      -6.83780685e-02 -3.20865810e-02 8.62845853e-02 1.00102805e-01
      1.75485909e-02 -9.20045376e-03 -1.81292906e-01 2.76715565e-03
      5.00898600e-01 -2.00034931e-01 -1.35114312e-01 1.07236594e-01
      1.27580777e-01 2.62208357e-02 4.38789045e-03 -1.91872697e-02
      -5.25315329e-02 7.65292067e-03 -4.88261282e-02 7.49358013e-02
      1.12944648e-01 -9.89503339e-02 -3.92665491e-02 2.94341564e-01
      5.42037785e-02 -1.41408741e-01 -3.26203294e-02 -2.48469025e-01
      5.88876661e-03 -1.31977469e-01 -1.40805654e-02 8.64461344e-03
      -1.59922447e-02 7.24095106e-01 -3.94401234e-03 -1.91188455e-02
      -7.44789988e-02 -2.71397512e-02 -7.45930448e-02 9.28124562e-02
      2.30538130e+00 2.51712389e-02 -1.84349775e-01 3.20051759e-02
      -1.55615628e-01 8.71719420e-03 1.44033721e-02 1.15375537e-02
      1.87261701e-02 -6.69793561e-02 2.71613300e-02 6.27467558e-02
      -2.70893201e-02 -1.62331276e-02 -7.01964870e-02 -1.57212168e-01
      2.37039104e-02 -9.55491513e-03 -2.84792669e-02 -2.12156232e-02
      2.55337395e-02 9.49436054e-02 -3.67189571e-02 -6.52710646e-02
      -2.54330342e-03 -1.66389607e-02 1.64267451e-01 9.15315077e-02
      -1.67904198e-01 3.51641886e-02 1.83436312e-02 -9.27732699e-03
      1.40130809e-02 3.63348015e-02 1.44531056e-01 -4.06522192e-02
      -3.79870981e-02 -1.88955199e-03 1.47559363e-02 -1.00148603e-01
      -7.43090928e-01 2.10140515e-02 4.87441234e-02 -7.96516016e-02
      7.57512376e-02 2.09550839e-02 4.92186099e-02 5.15425391e-02
      -9.02117491e-02 1.36407912e-01 -2.12789252e-02 8.62467848e-03
      -1.49960853e-02 7.93059617e-02 7.41661116e-02 -1.50908921e-02
      2.58935001e-02 -2.25520115e-02 2.60094374e-01 1.65989220e-01
      5.00061875e-03 1.91879869e-01 -1.89514354e-01 1.70917413e-03
      -5.73433697e-01 -6.85900599e-02 3.21283937e-02 -1.02469847e-01
      -2.46654265e-03 -3.81324887e-02 1.24336574e-02 2.05125636e-03
      9.50660333e-02 5.60662970e-02 1.11616496e-02 -2.74709798e-02
      -6.59894496e-02 3.76769118e-02 1.68346446e-02 -6.62162751e-02
      3.29803601e-02 -2.43492331e-03 -2.75623590e-01 -2.25488134e-02
      7.54909068e-02 4.20225076e-02 -3.10886260e-02 2.48794824e-01
      2.73267962e-02 -7.70208519e-03 -8.55491981e-02 1.96784828e-02
      -4.78478000e-02 7.75818676e-02 2.01742724e-01 1.13486536e-02
      6.74822461e-03 4.60175574e-02 -2.08392385e-02 -3.26512828e-02
      2.81528831e-02 5.86817674e-02 -1.26715332e-01 -2.59306747e-04
      -3.88974510e-02 3.15781832e-01 -1.16235979e-01 3.20278145e-02
      -3.27646807e-02 6.50205240e-02 2.10816171e-02 -1.02116048e-01
      -9.37254168e-03 4.67739813e-02 -1.33556426e-01 5.22436611e-02
      -8.80329609e-02 3.80626053e-01 1.69002801e-01 -5.52815758e-03
      5.61787151e-02 1.53329698e-02 2.28723083e-02 -2.04188935e-02
      -3.50723147e-01 2.23460849e-02 -6.69055134e-02 4.45763674e-03
      -8.61851722e-02 -3.25568742e-03 9.23844501e-02 -2.16942243e-02
      -7.67662283e-03 1.41343568e-02 1.14545368e-01 1.16281100e-01
      -4.88639623e-02 -4.63481359e-02 -5.04681505e-02 -1.31999040e-02
      4.77466024e-02 3.74757685e-02 -1.11881681e-02 3.44758593e-02
      9.65927020e-02 -2.19132490e-02 -6.69601187e-02 4.14710492e-02
      -5.12323081e-02 -5.25556989e-02 -2.70874184e-02 -4.81210724e-02
      1.60303712e-02 3.76248732e-04 -2.75565125e-02 -1.68272387e-02
      -8.17845389e-02 -5.26645899e-01 2.75033146e-01 -1.09109871e-01
      -2.74032392e-02 5.35641015e-02 -1.23880126e-01 2.38915663e-02
      -1.13511644e-02 1.01212282e-02 4.89608850e-03 5.87564111e-02
      -6.05372600e-02 1.15240477e-01 -2.16581285e-01 6.44918457e-02
      -3.82688530e-02 1.01154959e-02 1.08106490e-02 -3.22817592e-04
      2.84947418e-02 -3.16383652e-02 2.15261392e-02 2.85863923e-03
      -4.63507418e-03 7.22141713e-02 4.62846318e-03 1.81065708e-01
      3.68392877e-02 9.49101672e-02 1.04223236e-01 2.56500021e-03
      5.81093058e-02 2.14631096e-01 1.95907339e-01 -3.26468766e-01
      -2.70585548e-02 -4.38071340e-02 2.26061463e-01 9.10700765e-03
      -3.76144913e-03 6.83384985e-02 2.06790045e-02 -2.69193538e-02
      5.90244085e-02 -4.47232090e-02 1.65997550e-01 -4.73914929e-02
      7.72157451e-03 -2.95090545e-02 7.82863796e-02 -1.01549402e-01
      -2.48108432e-01 -6.84952140e-02 -6.96671903e-02 1.00070693e-01
      -9.64740291e-02 -1.65901016e-02 2.15438288e-03 1.13363042e-02
      -3.13424249e-03 1.35856774e-02 -3.62691656e-02 -2.34155849e-01
      -5.38507104e-02 -9.23177227e-02 -1.63451448e-01 1.67928189e-02
      -3.07335090e-02 1.92769966e-03 1.07331008e-01 1.70410648e-01
      -1.69618125e-03 -1.17660671e-01 6.88877776e-02 -1.28388479e-02
      2.26678401e-02 -6.57801852e-02 3.37794307e-03 2.72323340e-02
      -1.20375678e-02 -3.80888395e-03 -9.43328217e-02 -1.00051276e-01
      -1.70698032e-01 -4.84945141e-02 -5.41603900e-02 -3.40999279e-04
      1.17123649e-01 -2.35869735e-02 9.21501666e-02 -3.60075869e-02
      -1.00081265e-01 -1.76589787e-02 3.39579806e-02 1.26833860e-02
      5.28957061e-02 1.54493405e-02 -3.92016619e-02 -1.21737011e-01
      1.02946520e-01 1.37765959e-01 6.28084913e-02 -1.73467807e-02
      9.09596905e-02 1.05917931e-01 -1.53425205e-02 8.30408558e-03
      -7.06435889e-02 4.38011885e-02 4.43086820e-03 -1.72670605e-03
      -4.86620627e-02 1.47109374e-01 9.99453738e-02 1.78902820e-01
      -1.86563097e-03 1.65729791e-01 2.75898371e-02 6.85756505e-02
      8.62468034e-03 -3.80246453e-02 -1.72915701e-02 1.23835513e-02
      6.11318760e-02 -5.99704869e-02 -5.61643019e-02 -9.99284536e-03
      -3.45015526e-02 2.41166607e-01 4.84834239e-02 -4.43982147e-02
      4.89206333e-03 -3.84753607e-02 4.53869551e-02 -4.79042064e-05
      2.25486439e-02 4.63821962e-02 -2.31446475e-02 -1.16518047e-02
      4.22582105e-02 -5.99889159e-02 -3.64364274e-02 3.16444993e-01
      -6.39263168e-02 3.18840623e-01 1.47410631e-01 -5.78576289e-02
      2.00756155e-02 3.78860645e-02 3.51981372e-02 -1.29752830e-01
      1.11976035e-01 1.90929711e-01 -1.78110346e-01 2.70839334e-02
      -1.85137615e-02 -1.13843661e-03 -5.33057563e-02 6.10535257e-02
      -2.78925244e-02 -1.54154794e-03 -5.38323149e-02 4.67562005e-02
      1.62680517e-03 -1.79532349e-01 -4.18044105e-02 3.21785733e-03
      1.15033828e-01 -1.20537039e-02 1.72398075e-01 2.60876477e-01
      -2.77317874e-03 -2.57459916e-02 -9.40483063e-02 5.64030707e-02
      -2.97268275e-02 3.26942652e-04 1.37274280e-01 -7.45378658e-02
      -8.81911889e-02 -3.74939293e-02 -1.57180637e-01 3.76583897e-02
      -1.69594344e-02 -1.39322609e-01 -2.14100420e-03 3.43707465e-02
      -5.11560552e-02 2.83438623e-01 -6.74036890e-02 7.46905506e-02
      -8.05380791e-02 8.95151123e-02 -2.47172173e-02 -1.43627701e-02
      1.63517669e-02 -6.75894246e-02 -3.76131162e-02 -2.94279773e-02
      2.68723965e-01 -9.29838941e-02 3.26041281e-02 3.18919681e-02
      6.32286742e-02 -7.85532314e-03 -1.95641369e-02 -2.76388545e-02
      -2.55300254e-02 -1.65833309e-02 7.81924725e-02 -5.68201765e-03
      1.81208834e-01 4.19474021e-02 -1.07806530e-02 -1.34273674e-02
      -1.14030786e-01 1.98511198e-01 -1.06549717e-01 3.91985148e-01
      -1.28893808e-01 -5.28293476e-02 -4.09031808e-02 2.20221490e-01
      2.15535555e-02 -1.24394834e-01 -1.63849160e-01 -5.09993024e-02
      -9.91526898e-03 1.18908267e-02 1.46841183e-02 -3.49240601e-02
      -4.87242863e-02 -2.03262400e-02 3.78700420e-02 -6.34556860e-02
      8.53914127e-04 2.69983783e-02 1.67739782e-02 -1.58320628e-02
      -3.66136134e-02 6.15888508e-04 -1.33109745e-02 7.04752805e-04
      -9.96662602e-02 2.47560255e-02 3.62102478e-03 1.73724547e-01
      -3.85651104e-02 4.54447746e-01 -1.01696476e-02 -6.20541275e-02
      -5.54482415e-02 8.57317820e-02 1.58981550e-02 4.59278077e-02
      2.43115965e-02 -2.04614289e-02 -1.98870953e-02 1.34423018e-01
      6.82715792e-03 -1.12187141e-03 -6.79041147e-02 4.56442833e-02
      -3.89691517e-02 -1.84908122e-01 -6.36964366e-02 1.70864481e-02
      -2.08414737e-02 -4.37305421e-01 -8.65407139e-02 -1.78229157e-02
      -1.78203452e-04 -1.08228907e-01 -2.61985939e-02 6.15769066e-02
      2.64657110e-01 -1.07167140e-02 1.23845972e-03 3.69064999e-03
      2.11477820e-02 -1.72464013e-01 -3.25985439e-02 -1.81210458e-01
      5.09011671e-02 -2.01362446e-02 9.81977731e-02 1.96973439e-02
      8.44842717e-02 -4.35128063e-02 -2.89891988e-01 1.14283115e-01
      3.83017994e-02 9.69508290e-03 -7.58510977e-02 -2.91566104e-01
      -1.50547177e-01 -2.16558203e-01 -3.97261560e-01 -7.33733177e-02
      6.12650700e-02 -3.37174162e-02 -4.06951718e-02 -7.40287900e-02
      7.45386444e-03 3.75368521e-02 -5.30725084e-02 -2.12455932e-02
      -1.19137242e-02 -3.00247818e-01 -3.83754045e-01 3.62756592e-03
      7.37327617e-04 -1.03723351e-02 1.13161050e-01 8.04499313e-02
      -3.61029804e-02 -3.43649387e-02 1.61707588e-02 9.15709324e-03
      -7.18345866e-04 1.39061455e-02 2.06925499e-04 -8.82814266e-03
      5.28558865e-02 1.10899499e-02 -1.42574161e-01 -1.88562647e-01
      -5.53956702e-02 1.86160430e-02 -2.06338689e-02 4.90878485e-02
      1.56452358e-02 -8.90850928e-03 -8.04602444e-01 1.96079031e-01
      -7.56106436e-01 -6.63204432e-01 4.26932098e-03 -7.59542547e-03
      -3.05779546e-01 -3.98452654e-02 -4.51611400e-01 -3.56926024e-02
      -7.38581941e-02 -4.22503725e-02 -8.65086466e-02 -5.71792163e-02
      2.78462153e-02 -5.57443872e-02 -1.34187285e-03 2.84213990e-01
      4.56291484e-03 -2.68899221e-02 3.24672423e-02 -1.27670914e-01
      6.92791566e-02 -6.44157156e-02 -1.07965663e-01 3.14216018e-02
      -1.21555120e-01 -5.12460656e-02 -1.90737501e-01 -6.56699389e-02
      1.70017369e-02 -6.17295355e-02 4.69525568e-02 -3.38953957e-02
      6.45054281e-02 1.65336244e-02 7.44331554e-02 5.71058877e-02
      3.29188770e-04 3.00828889e-02 -4.96619530e-02 -4.07415107e-02
      5.23124412e-02 -3.41115966e-02 -4.03176695e-02 -3.80798131e-02
      -5.32628447e-02 -6.01962358e-02 -8.14737901e-02 -1.15660615e-01
      3.44214551e-02 -2.34434623e-02 2.64390726e-02 -1.32354489e-02
      -7.37759918e-02 -6.51083291e-02 -2.00742990e-01 7.43894204e-02
      3.30229029e-02 -2.02071294e-01 -1.97219010e-02 -1.28369257e-02
      6.12449087e-02 -2.10061297e-02 2.29175799e-02 -7.88786262e-03
      -2.61873771e-02 2.17308607e-02 -4.03239541e-02 -2.00249013e-02
      -6.19476028e-02 1.75487772e-02 3.78258079e-02 -2.64426529e-01
      7.70071894e-02 -7.91518763e-03 3.14404853e-02 -2.89995084e-03
      1.54052749e-02 -2.86069838e-03 1.91333168e-03 1.61904562e-02
      -3.81960534e-02 -5.80863357e-02 -2.00341698e-02 6.05404377e-02
      3.52263823e-02 -6.91902563e-02 -1.04858167e-02 1.00483768e-01
      -1.35326544e-02 -4.90230955e-02 3.76306385e-01 6.52471744e-03
      -1.06559195e-01 -2.46042721e-02 -4.76788551e-01 1.15717195e-01
      -1.02267833e-04 2.12430656e-01 -3.39930281e-02 1.78528160e-01
      4.61406521e-02 -4.97957841e-02 -6.51504770e-02 -3.20329294e-02
      -2.57391464e-02 -5.29107684e-03 -1.20987520e-02 2.08160207e-01
      -3.75528708e-02 -4.94962558e-03 1.55564159e-01 -6.23579696e-03
      5.35837933e-02 3.57457027e-02 2.25308109e-02 -4.50853370e-02
      -7.46469721e-02 1.02343839e-02 -1.95703981e-03 -2.10895631e-02
      3.15324105e-02 9.89058428e-03 1.16356052e-01 -4.45851870e-02
      2.54229363e-03 1.42075215e-02 3.24477907e-04 1.14405584e-02
      2.05425322e-02 2.75705680e-02 6.61795884e-02 -1.34101938e-02
      -2.52666622e-01 5.34386560e-02 -1.56462919e-02 -1.24750800e-01
      7.77001828e-02 -1.83162820e-02 -1.14534618e-02 -8.16620588e-02
      -7.25755841e-02 7.71894678e-02 5.90908341e-03 4.76521719e-03
      -2.48917472e-02 3.50125767e-02 4.02712151e-02 -6.71456531e-02
      -3.98271866e-02 -6.85913023e-03 9.28339083e-04 -3.11492998e-02
      -1.77762602e-02 -1.49013763e-02 5.44677556e-01 -2.47022826e-02
      1.06671259e-01 -1.32055590e-02 -1.35206088e-01 -1.26982287e-01
      -4.27813679e-02 5.59958741e-02 -9.83499214e-02 -2.95748748e-02
      -1.17361639e-02 -2.31117215e-02 1.35876322e-02 -2.81480346e-02
      6.44412041e-02 2.28799284e-02 -2.89783720e-03 2.19719023e-01
      -3.94524001e-02 -4.88795014e-03 1.11033432e-02 -7.72649348e-02
      3.25801447e-02 -1.10415488e-01 -3.63198947e-03 1.61809530e-02
      2.15801746e-02 -2.69755572e-02 5.74578531e-03 -7.38020753e-04
      6.40675008e-01 -2.93729100e-02 -2.05203984e-02 -3.20099364e-03
      -1.60298988e-01 -1.21214524e-01 1.32793728e-02 -4.06476948e-03
      -5.00065461e-02 -2.49291081e-02 -1.82120353e-02 -2.23744199e-01
      -2.24946383e-02 9.70083252e-02 -2.92172879e-01 6.67873723e-03
      -1.75022613e-02 8.34210739e-02 -8.07226449e-02 5.49071506e-02
      1.92824902e-03 -3.89451869e-02 -1.09911151e-02 -7.41707981e-01
      8.17564279e-02 7.82330893e-03 5.73446751e-02 -1.53790683e-01
      -5.85383968e-04 -4.39379886e-02 -1.54786557e-03 -5.41212745e-02
      -1.05718277e-01 4.54528118e-03 6.28778115e-02 1.34383477e-02
      3.00488442e-01 4.77358848e-01 1.38580110e-02 -5.35246693e-02
      1.00171976e-01 -8.31648707e-02 -4.73971255e-02 7.62225967e-03
      -8.30977038e-02 -1.01512909e-01 1.82760283e-02 -3.90644297e-02
      1.19690977e-01 3.14664431e-02 -2.01878875e-01 -7.36652464e-02
      -4.87974361e-02 8.43778718e-03 -4.71056439e-02 1.77802145e-02
      1.10687884e-02 -6.23214804e-02 -5.35300262e-02 -5.31836078e-02
      4.09619845e-02 -2.90476054e-01 2.41500093e-03 -1.32427784e-02
      -3.24142538e-02 -2.41928827e-02 -5.47662191e-02 -2.46983729e-02
      -5.02694305e-03 3.12926583e-02 -3.05450521e-02 -1.40709072e-01
      1.44343162e-02 3.61348912e-02 -3.91108766e-02 -1.76796969e-02
      2.21946165e-02 -1.50228366e-02 -5.61144855e-03 -7.96831325e-02
      1.60440207e-01 1.10884979e-01 1.19583989e-02 -1.06414398e-02
      3.95136466e-03 -1.40487105e-02 -1.33584321e-01 -1.02608174e-01
      -4.49277535e-02 1.74591318e-01 -5.03322259e-02 -1.52282808e-02
      1.04354685e-02 -6.52004778e-02 3.14904051e-03 -2.06857044e-02
      -5.45502827e-03 1.88038312e-02 -5.18363267e-02 3.05193901e-01
      -5.26049733e-03 4.52192314e-02 -7.72777479e-03 -5.44261411e-02
      -5.34383254e-03 -2.87802611e-02 1.19652255e-02 -8.34584609e-03
      3.47733319e-01 -1.03377774e-01 2.68121362e-01 1.09704677e-02
      9.42835584e-02 1.44792069e-02 -4.62442368e-01 4.19587735e-03
      4.76557389e-02 2.21036077e-02 -1.05765206e-03 3.95214111e-02
      -1.08011581e-01 2.96363067e-02 -3.50767747e-02 1.95052773e-01
      -3.58843915e-02 4.49924683e-03 -2.23903760e-01 -9.13878754e-02
      1.07153222e-01 -9.63559449e-02 -1.19625367e-01 -3.89366527e-03
      1.14751242e-01 3.24888453e-02 -7.39328889e-03 1.51575981e-02
      -1.88782178e-02 -2.64423154e-03 2.72479411e-02 -6.53750524e-02
      -2.64528533e-03 -4.56603579e-02 -1.73154436e-02 -9.24001355e-03
      -1.43437266e-01 1.81976691e-01 1.85496509e-02 1.36871515e-02
      -1.97008681e-02 4.27264571e-02 2.62824353e-02 -1.80598870e-02
      -4.17671353e-03 -5.08521721e-02 -4.06854264e-02 -4.75747399e-02
      3.31447683e-02 3.51228379e-02 -3.55133861e-01 -2.70028766e-02
      4.37539518e-02 -7.18332604e-02 2.05143340e-04 -4.86798026e-02
      5.79808019e-02 -9.46663171e-02 6.91577746e-03 -4.78424914e-02
      6.91791847e-02 -1.32272482e-01 1.23156616e-02 -2.33219326e-01
      -4.46570329e-02 -2.69856229e-02 -7.23693743e-02 -7.65124559e-02
      1.97906084e-02 -1.02972940e-01 2.06847712e-02 6.54147472e-04
      -1.06545454e-02 -5.26517779e-02 1.90631859e-02 -1.18489452e-02
      6.33668248e-03 2.99265515e-03 -9.72134341e-03 8.10524151e-02
      1.62340049e-02 2.83807218e-02 -1.78375959e-01 9.08720586e-03
      4.87376340e-02 -2.82115102e-01 2.31061801e-02 4.45150621e-02</_></support_vectors>
  <decision_functions>
    <_>
      <sv_count>1</sv_count>
      <rho>8.7067984620150751e-01</rho>
      <alpha>
        1.</alpha>
      <index>
        0</index></_></decision_functions></my_svm>
</opencv_storage>
