<?xml version="1.0"?>
<opencv_storage>
<my_svm type_id="opencv-ml-svm">
  <svm_type>C_SVC</svm_type>
  <kernel><type>LINEAR</type></kernel>
  <C>1.</C>
  <term_criteria><epsilon>1.1920928955078125e-07</epsilon>
    <iterations>1000</iterations></term_criteria>
  <var_all>1000</var_all>
  <var_count>1000</var_count>
  <class_count>2</class_count>
  <class_labels type_id="opencv-matrix">
    <rows>1</rows>
    <cols>2</cols>
    <dt>i</dt>
    <data>
      0 1</data></class_labels>
  <sv_total>1</sv_total>
  <support_vectors>
    <_>
      1.71897374e-02 -1.99937094e-02 -6.87469915e-02 4.22499292e-02
      -4.86850366e-02 5.20798080e-02 9.07889828e-02 -2.20260005e-02
      -4.56723869e-02 2.00332310e-02 -2.59153061e-02 2.53676903e-02
      -4.91364524e-02 6.20401371e-03 4.35114130e-02 -1.91071499e-02
      -5.41577563e-02 2.07982026e-03 -1.72173586e-02 2.03937571e-03
      -4.88252044e-02 3.48904990e-02 5.78856021e-02 -2.85273255e-03
      2.19075978e-02 1.03196815e-01 5.67750968e-02 -3.70698012e-02
      -1.13883158e-02 -3.44145671e-02 -5.86762391e-02 7.03625157e-02
      4.46324870e-02 -1.41075075e-01 -4.58111726e-02 -6.70176223e-02
      3.93972620e-02 1.57140358e-03 8.45972374e-02 -1.55870868e-02
      4.28926706e-01 -8.48550126e-02 6.01860210e-02 -7.60366581e-03
      1.10655680e-01 -3.30319479e-02 4.78791371e-02 -3.86926867e-02
      1.00421319e-02 1.16013000e-02 -4.13688272e-03 -1.27151027e-01
      7.41129927e-03 6.24974817e-02 -6.45341445e-03 -1.29268663e-02
      -3.40784714e-02 -2.55455985e-03 -2.45677494e-02 -1.59690142e-01
      -2.02155933e-01 -1.29535496e-02 5.09861670e-03 3.63219827e-02
      7.76889222e-03 -2.44658813e-02 2.06482001e-02 4.26578410e-02
      -2.35210750e-02 -7.49018267e-02 -3.37940268e-02 2.83821020e-02
      -3.26421931e-02 -1.51794419e-01 -3.19307484e-02 -2.36894563e-02
      -1.51883643e-02 -1.06874350e-02 -4.86511551e-03 -8.69303010e-03
      5.17735630e-02 -3.32232341e-02 6.17491314e-03 8.43925551e-02
      4.03473973e-02 6.28768560e-03 1.61242113e-01 -1.07691800e-02
      -8.68659839e-02 -2.85976063e-02 3.33986655e-02 8.77949875e-04
      -1.98486708e-02 1.42085450e-02 4.11307178e-02 1.07651614e-02
      -1.97584964e-02 -1.05004452e-01 -1.24815376e-02 1.94299012e-01
      -2.47768667e-02 4.18151766e-02 2.06105020e-02 -1.01727471e-01
      -2.60288473e-02 -2.39451379e-02 2.76158229e-02 -1.12679880e-02
      -9.10565928e-02 4.26068855e-03 6.02439372e-03 -2.71318574e-02
      -5.15597537e-02 -2.55284458e-02 -4.43768315e-03 1.01955207e-02
      1.18407324e-01 -1.67504437e-02 -6.25845371e-03 7.94563163e-03
      -4.91055921e-02 -7.46357217e-02 -6.07642941e-02 -2.03931481e-02
      2.46901456e-02 3.97695694e-05 1.91874187e-02 6.93459390e-03
      1.24469660e-02 -5.16230948e-02 -5.56420684e-02 -3.44639570e-02
      -2.63712466e-01 6.86865747e-02 2.90292501e-02 3.38199213e-02
      3.14541953e-03 -9.77464672e-03 7.68002868e-02 4.10443507e-02
      1.07345241e-03 -8.02965369e-03 -3.05198170e-02 8.10247287e-02
      -1.56038431e-02 5.56989631e-04 7.04852939e-02 5.22720627e-02
      3.57737951e-02 -1.01082344e-02 1.52145643e-02 -3.59580480e-02
      -4.07012813e-02 -2.72521935e-02 2.34230421e-02 -4.86128451e-03
      3.11183985e-02 -2.31061038e-02 -8.67620483e-03 2.38153934e-02
      -3.20829675e-02 -5.78435026e-02 -1.24157919e-02 -1.15989998e-01
      -1.27515206e-02 3.35113972e-01 5.88452667e-02 -2.10509092e-01
      1.08032636e-02 2.34320238e-02 3.85965244e-03 -1.13431111e-01
      5.02052251e-04 1.50732268e-02 1.10321268e-01 -1.26075856e-02
      -3.66375506e-01 -7.51459524e-02 -9.60392877e-03 -1.93358604e-02
      9.95612592e-02 -2.83862557e-02 -2.17019971e-02 1.11805815e-02
      -4.64948118e-02 -1.22667779e-03 2.24374346e-02 -8.07465985e-02
      -8.35495442e-03 7.65092205e-04 6.66221529e-02 -4.03724670e-01
      -4.66328897e-02 1.26130044e-01 3.39862630e-02 -4.42855880e-02
      -3.76495942e-02 2.22090222e-02 2.68010404e-02 6.73737004e-03
      6.19944632e-02 3.40016074e-02 3.07055656e-03 2.85131503e-02
      -4.23027985e-02 1.97987561e-03 4.04694956e-03 -8.77949782e-03
      -1.71227176e-02 -7.30649941e-03 -2.89898785e-03 2.32935939e-02
      -1.31770208e-01 -5.05559705e-03 7.03714788e-02 -8.65757614e-02
      -5.68691641e-02 1.75007954e-02 -2.62457728e-02 -3.38994384e-01
      2.15959270e-04 -2.03689747e-02 -9.95057672e-02 1.18886642e-02
      -1.74993835e-02 2.59464178e-02 1.03929332e-02 1.74715742e-02
      -4.90284525e-03 5.80341071e-02 3.91476825e-02 2.53156037e-03
      -2.00382154e-02 -9.21096839e-03 -4.93725110e-03 3.32237333e-02
      -3.21435295e-02 3.30402218e-02 -7.89987016e-03 -1.29778787e-01
      -1.61712877e-02 -2.96146926e-02 1.19377077e-01 5.15161455e-03
      -2.51389053e-02 5.25897890e-02 -6.67184517e-02 1.36117578e-01
      -3.44799757e-02 1.08576780e-02 2.10043159e-03 -2.86519937e-02
      1.68689359e-02 -1.27726480e-01 -1.79749653e-02 3.13119427e-03
      -2.74140649e-02 5.63693931e-03 -1.07447095e-02 1.25171626e-02
      3.69712524e-02 -3.30527429e-03 1.59816463e-02 6.97969422e-02
      -1.97686762e-01 -6.76204860e-02 -4.08662818e-02 -1.59391295e-02
      1.31726295e-01 -2.90959403e-02 -2.95793824e-02 4.91995439e-02
      4.50619012e-02 -6.02672696e-02 -8.48964788e-04 1.25684403e-03
      -2.88470611e-02 -1.56473592e-01 -4.81697619e-02 -2.40940899e-02
      -1.62370577e-02 -2.28911228e-02 -2.31802352e-02 1.49907423e-02
      -1.99483439e-01 1.39557123e-02 2.79389601e-02 -1.16622575e-01
      -1.31391674e-01 3.33550968e-03 -4.13808972e-03 -6.92781247e-03
      -2.16538762e-03 -1.15386344e-01 6.84789345e-02 -1.97634604e-02
      -7.33746029e-03 -1.77997872e-02 3.07149417e-03 -9.49078053e-03
      1.63052324e-02 -2.46483702e-02 3.34872268e-02 3.38306576e-02
      -2.47186832e-02 -1.34101763e-01 -2.09856890e-02 2.17613974e-03
      1.75372288e-02 -6.12698868e-02 -2.17759218e-02 -1.91803630e-02
      -1.43840704e-02 1.48550600e-01 2.22121943e-02 -1.68195344e-03
      4.00376244e-04 7.25318044e-02 9.11905766e-02 -1.03829624e-02
      -1.17178913e-02 1.74664357e-03 -2.53470242e-02 -1.54027762e-02
      2.30044387e-02 1.15765475e-01 3.24892486e-03 7.73635227e-03
      -1.06124682e-02 -9.00446624e-03 3.24508786e-01 -9.80322063e-03
      9.18824133e-03 5.26483655e-02 1.67573690e-02 8.71989205e-02
      -5.96006885e-02 2.25448068e-02 -1.25693502e-02 2.14783121e-02
      7.63477534e-02 1.03941085e-02 -4.49827239e-02 -8.44664592e-03
      -7.81715810e-02 2.27587335e-02 -1.16883423e-02 -1.20159043e-02
      -4.51941304e-02 -9.36884582e-02 1.70358443e+00 -8.87225848e-03
      4.42754626e-02 -2.19856538e-02 3.96612734e-02 6.98698908e-02
      4.10730466e-02 -4.51563578e-03 -7.45263696e-02 -2.04081777e-02
      -7.36006955e-03 -2.46441960e-02 -4.50536869e-02 1.00402739e-02
      -2.10277643e-02 8.33541155e-02 -2.12211274e-02 -7.58347940e-03
      -4.66979891e-02 -5.10140732e-02 2.61629419e-03 -2.27674097e-02
      -2.03093037e-01 -3.80374491e-03 7.90211186e-02 -3.23065021e-03
      1.87577326e-02 -1.57578886e-02 1.97433606e-02 -6.89375997e-02
      -4.51946165e-04 -7.02890083e-02 2.77620200e-02 2.34474819e-02
      2.30705902e-01 -2.36713309e-02 9.75647662e-03 -1.00259129e-02
      3.10513214e-03 -4.81762365e-02 -3.27688968e-03 1.96094867e-02
      -4.62299958e-02 2.52004880e-02 3.19455355e-01 -3.48857208e-03
      -2.01461203e-02 2.22784169e-02 -2.79084817e-02 2.57069408e-03
      1.73272211e-02 1.18625853e-02 -1.44060906e-02 -1.52596552e-03
      -4.26029079e-02 3.79775465e-02 -1.22347875e-02 5.66272847e-02
      -2.83147953e-02 -1.17310379e-02 -5.87318130e-02 -2.03411967e-01
      2.04565585e-01 -1.27772316e-02 1.69869922e-02 -2.43693460e-02
      9.46190357e-02 5.49599230e-02 -1.46148028e-03 -1.36193588e-01
      1.13004200e-01 -4.36549969e-02 1.35143856e-02 -1.63746905e-02
      -1.00570783e-01 -3.89304273e-02 -4.00083922e-02 -3.41161117e-02
      -1.11346226e-03 -3.35726514e-02 1.22296698e-02 -4.73990925e-02
      -9.38853528e-03 -3.64208594e-02 7.75989443e-02 -8.75889361e-02
      7.01920409e-03 7.80262053e-06 1.00600600e-01 -3.48770954e-02
      -4.65917811e-02 -4.51341644e-02 3.20046954e-02 -4.72574607e-02
      2.56114416e-02 8.75789020e-03 -9.08414871e-02 -1.86008774e-02
      -2.46745255e-02 -1.34632319e-01 -4.05166997e-04 -1.59023721e-02
      -1.49730369e-02 1.07336812e-01 3.29281092e-02 2.20121071e-02
      -9.41586029e-03 6.26806309e-03 -2.81124469e-02 -3.38467546e-02
      2.37480756e-02 -1.94444116e-02 -1.17470818e-02 -8.74792319e-03
      -1.19756302e-02 -2.46317834e-02 -4.52271197e-03 1.56094488e-02
      -8.01860541e-02 -9.24844295e-03 4.09668647e-02 -7.73388818e-02
      -2.26873197e-02 3.66914794e-02 2.35892609e-02 -1.84879526e-02
      1.93664827e-03 6.93811923e-02 -4.15969677e-02 -5.18976944e-03
      1.57173793e-03 1.11732446e-03 3.77136841e-03 7.35878646e-02
      -1.37240008e-01 5.03038578e-02 -1.11964755e-02 -2.39897948e-02
      -3.87396570e-03 -3.96011472e-02 -1.03321401e-02 -1.61820017e-02
      -1.81180630e-02 2.64954101e-03 -1.52850941e-01 6.92390790e-03
      -9.62318853e-03 -2.06831414e-02 -3.05496482e-03 1.76261682e-02
      -1.52565762e-02 1.69023909e-02 5.10752983e-02 -1.10812455e-01
      -8.60927626e-03 -2.65934784e-02 -5.36201000e-02 -6.60573617e-02
      1.84393104e-03 -9.73568112e-03 -1.37021299e-04 1.01962565e-02
      1.62145153e-01 1.52611616e-03 -1.62155051e-02 -2.06247121e-02
      4.61778082e-02 1.47212446e-02 -7.09963515e-02 6.03372511e-03
      -2.52491888e-02 -3.54134887e-02 8.85882415e-03 -3.21386848e-04
      -2.43916269e-03 6.91512972e-03 -1.19497523e-01 -6.92327414e-03
      1.30929677e-02 5.70992492e-02 -3.89274326e-03 -4.25642133e-02
      -1.44564984e-02 -4.07100841e-03 4.42179851e-02 8.77739303e-03
      3.71032278e-03 -7.92825688e-03 6.74932897e-02 -1.62523566e-03
      5.24725299e-03 -2.27794261e-03 6.27290756e-02 -4.26822864e-02
      -1.68709494e-02 -2.34394670e-01 1.55085519e-01 5.39422370e-02
      -9.17019788e-03 -3.68588120e-02 7.45741725e-02 1.40733004e-01
      6.21021166e-02 -2.41761301e-02 -1.94297954e-02 1.94249284e-02
      -1.54300719e-01 2.86895633e-02 1.78619009e-02 1.68906562e-02
      -2.16645133e-02 -1.20398644e-02 1.18989699e-01 -1.41881136e-02
      5.12210764e-02 8.99949390e-03 -6.67578802e-02 9.81140230e-03
      3.77527345e-03 -1.68726360e-03 -7.55896419e-03 -2.86618304e-02
      -2.94585736e-03 3.63855958e-02 -8.04010499e-03 6.91295117e-02
      -1.08947773e-02 -3.06469481e-02 -6.86156750e-03 2.38301352e-01
      -6.21162280e-02 -3.63718648e-03 -4.50235307e-02 -8.64915177e-02
      -3.81769030e-03 -3.02131055e-04 -8.49901757e-04 1.29488677e-01
      5.14363274e-02 -1.28031410e-02 1.27661442e-02 1.97876021e-01
      4.55601960e-02 -4.51966673e-02 7.81529490e-03 -8.15927386e-02
      3.50072198e-02 -1.53571423e-02 -1.03251636e-02 4.98792045e-02
      -4.28209268e-02 -2.09337249e-02 -3.99121195e-02 -6.26547541e-03
      2.89274361e-02 1.63395759e-02 -1.08547196e-01 2.60976017e-01
      6.76968368e-03 -3.35626900e-02 1.41237471e-02 -6.16922900e-02
      -1.40869357e-02 1.91334430e-02 1.67769343e-02 -1.51276931e-01
      -5.46206161e-02 1.53839178e-02 -4.30961922e-02 2.91411411e-02
      1.20119579e-01 5.22163287e-02 -7.73195643e-05 -1.00797834e-02
      -5.32793626e-03 6.00263104e-02 -9.83633772e-02 1.16402823e-02
      -1.90818667e-01 -5.97173534e-02 5.85340988e-03 -3.10359299e-02
      2.58288030e-02 -4.88199107e-02 2.50735860e-02 1.08147459e-03
      -6.92044711e-03 -2.57155281e-02 6.85949903e-03 3.50686093e-03
      6.06278423e-03 -1.82889715e-01 -1.52051933e-02 3.48042604e-03
      -1.76050693e-01 -2.91591771e-02 -3.04564871e-02 -3.43835959e-03
      -2.00173669e-02 -5.36236241e-02 6.72267238e-03 -1.47809954e-02
      -2.12737564e-02 5.42370491e-02 6.68056123e-03 -1.95707127e-01
      9.58866924e-02 1.56161143e-02 -9.83388722e-02 1.07466936e-01
      -2.79223802e-03 2.74002049e-02 -2.08253171e-02 5.56121115e-03
      6.05085716e-02 -1.20438106e-01 3.55283475e+00 -3.55566782e-03
      -9.91456583e-03 -1.54355392e-01 4.04948276e-03 2.88922668e-01
      2.00113989e-02 -5.98620065e-02 3.92680950e-02 -3.82519327e-02
      -9.67058092e-02 1.53949168e-02 -3.95924151e-02 1.09519875e-02
      2.09739804e-01 -1.60676590e-03 -8.16839188e-03 -7.45974556e-02
      -7.60894176e-03 -7.60263354e-02 4.44935374e-02 -1.07781757e-02
      -4.51646596e-02 8.81400332e-03 4.59588319e-03 -4.32843044e-02
      8.34016595e-04 -3.10563222e-02 3.03296326e-03 -1.11202113e-02
      -3.22129168e-02 -9.95262489e-02 4.45520431e-02 8.84417444e-02
      -1.36953518e-01 3.43988426e-02 4.34302129e-02 1.49366856e-02
      -2.59763771e-03 -1.97264124e-02 -2.03383826e-02 -2.75669228e-02
      1.22615390e-01 -1.40737975e-02 1.17404498e-02 -6.20638467e-02
      -8.48077610e-03 -7.03596696e-03 7.74875283e-02 6.04646616e-02
      -3.20939124e-02 1.88430212e-02 -5.72580658e-03 1.26757938e-02
      4.57692146e-03 -1.96874917e-01 2.35587661e-03 -9.06731933e-02
      -6.24922849e-02 1.56476386e-02 6.75974339e-02 -5.59336180e-03
      -8.47519841e-03 7.40740746e-02 1.05299614e-02 3.48220230e-03
      -9.55671724e-03 6.18431307e-02 -4.49992158e-03 -3.78113352e-02
      1.06850127e-03 3.93830389e-02 -1.20600283e-01 1.67179815e-02
      -2.68037319e-02 1.53218815e-03 -8.00329149e-02 -5.24847861e-03
      3.83242890e-02 -3.26124519e-01 1.85829028e-03 7.29274452e-02
      8.71917326e-03 2.22155944e-01 2.57453248e-02 -2.35253684e-02
      -3.47487628e-02 7.17145279e-02 8.34275223e-03 4.41349633e-02
      3.39085758e-02 -1.47933448e-02 -4.38416451e-02 -1.22992471e-01
      6.68146163e-02 5.90769649e-02 3.30031440e-02 1.88535098e-02
      4.36449498e-02 -6.92012347e-03 -5.86247072e-02 -1.49643719e-02
      -4.79742102e-02 3.95047013e-03 6.36286754e-03 3.69393192e-02
      2.59207096e-02 2.05622148e-02 -1.85547508e-02 -4.42545451e-02
      -1.97669007e-02 -2.93740653e-03 2.05200887e-03 8.72558169e-03
      2.31205020e-02 3.59723181e-03 6.15302473e-03 -5.11093857e-03
      3.97702446e-03 1.57453641e-02 -1.29784166e-03 1.67777866e-01
      -2.91733351e-02 -5.75448386e-02 1.33706816e-02 -1.46479765e-02
      -3.35665466e-03 -6.64716214e-03 1.26091927e-01 -3.60762291e-02
      7.56894657e-03 5.56138605e-02 4.08701301e-02 1.78290941e-02
      -1.95768028e-02 -1.76315792e-02 -2.33583227e-01 -3.83126736e-03
      -1.09325841e-01 7.71428496e-02 1.11882444e-02 -1.60346404e-02
      2.76409909e-02 4.14961763e-02 8.28520209e-03 -2.61232513e-03
      -4.47099004e-03 -7.14163929e-02 -1.22936778e-01 1.97259635e-02
      -3.59424263e-01 3.29403616e-02 2.01978255e-02 1.80215612e-02
      -1.15193343e-02 -1.90457702e-02 2.51946342e-03 -4.86382656e-02
      -2.71306131e-02 1.31171383e-02 1.92069132e-02 -3.40772793e-03
      -6.77830540e-04 4.97809704e-03 -5.66503452e-03 -6.30840436e-02
      1.74108092e-02 -2.81912386e-02 3.69921662e-02 -2.23850310e-01
      7.69189699e-03 -5.14382962e-03 6.18880987e-03 -7.03527685e-03
      -3.01445276e-02 -3.94499525e-02 -2.80158920e-03 -1.90996798e-03
      1.46491364e-01 3.63336550e-03 -2.04710551e-02 -2.08723191e-02
      1.21406037e-02 -1.86236203e-02 -1.12299877e-03 -1.15221245e-02
      -2.56522857e-02 -4.07940671e-02 6.02517724e-02 -6.66574202e-03
      -1.17783481e-02 -7.36352568e-03 -3.37624131e-03 1.05630243e-02
      1.60967223e-02 -4.99999989e-03 -1.47226080e-02 -1.64635293e-02
      -1.01171052e-02 -7.27689341e-02 -6.89838156e-02 1.04485452e-02
      -2.38747057e-02 -2.71724705e-02 1.55934662e-01 5.44798709e-02
      -1.48285748e-02 4.45777923e-03 -2.07668040e-02 5.81474677e-02
      6.52397797e-02 -7.32694846e-03 2.73394454e-02 -2.31839091e-01
      7.16373697e-03 -6.86076283e-03 -7.48282298e-03 4.07041144e-03
      -3.09821311e-02 -1.04155336e-02 -2.71546338e-02 2.73091421e-02
      -4.61597182e-02 -4.65774275e-02 4.01564594e-03 6.95213154e-02
      2.68592574e-02 -5.25652338e-03 -3.46647762e-02 1.07462350e-02
      5.06564304e-02 3.14514935e-02 -3.75173800e-02 2.22050026e-02
      7.60137569e-03 -2.46509910e-04 4.73325234e-03 3.44047439e-03
      -1.18671879e-02 -1.07314184e-01 5.89533895e-02 -2.68113073e-02
      2.27550277e-04 -9.41963214e-03 1.20613724e-02 -6.93594990e-03
      -1.79843485e-01 -1.49077162e-01 -2.93005025e-03 -7.01930607e-03
      -3.32304612e-02 -1.02785900e-02 -5.07708266e-02 2.80690170e-03
      -2.80738082e-02 3.02004497e-02 6.50226772e-02 2.22106706e-02
      9.68569191e-04 2.46637892e-02 -2.27615586e-03 6.83040358e-04
      1.14802727e-02 -2.68811733e-02 -1.65471379e-02 -1.48254354e-02
      -2.45007523e-03 5.69110364e-03 1.69764776e-02 7.56312534e-02
      -4.61398996e-03 5.21571562e-03 6.18704855e-02 -4.10486087e-02
      -9.38065932e-04 -6.11778116e-03 3.89355458e-02 -1.50106251e-02
      -7.62740849e-03 1.45678185e-02 -2.77470089e-02 -2.19752500e-03
      5.54309823e-02 -1.94283668e-02 -4.14841734e-02 1.27571560e-02
      -3.16008255e-02 -4.59735543e-02 7.73972599e-03 -1.01967454e-02
      1.37809776e-02 -5.11635914e-02 1.86865423e-02 -2.28210874e-02
      -4.06066328e-02 1.35413975e-01 -1.98828336e-02 6.24562148e-04
      -1.10289343e-02 -4.22908831e-03 -1.47150829e-01 -4.38030325e-02
      1.47927552e-03 -2.68058814e-02 1.96311735e-02 6.03211634e-02
      -2.05830261e-02 -4.81982250e-04 1.39127567e-01 7.08014816e-02
      7.67139671e-03 -4.48248982e-02 2.55326950e-03 -2.53862608e-02
      -1.70839410e-02 -1.16957696e-02 1.92865822e-03 2.29625832e-02
      1.78471375e-02 -4.88894507e-02 -4.73166816e-03 -3.90998423e-02
      -6.05193712e-02 3.51986499e-03 -3.98965692e-03 -2.90118791e-02
      5.66679053e-03 -6.59292787e-02 4.74295020e-02 -4.84166527e-03
      1.05845770e-02 -2.91283219e-03 -2.61914488e-02 -7.91978687e-02</_></support_vectors>
  <decision_functions>
    <_>
      <sv_count>1</sv_count>
      <rho>9.4113777723786729e-01</rho>
      <alpha>
        1.</alpha>
      <index>
        0</index></_></decision_functions></my_svm>
</opencv_storage>
